<?xml version="1.0"?>
<opencv_storage>
<cascade>
  <stageType>BOOST</stageType>
  <featureType>LBP</featureType>
  <height>30</height>
  <width>30</width>
  <stageParams>
    <boostType>GAB</boostType>
    <minHitRate>9.9500000476837158e-01</minHitRate>
    <maxFalseAlarm>5.0000000000000000e-01</maxFalseAlarm>
    <weightTrimRate>9.4999999999999996e-01</weightTrimRate>
    <maxDepth>1</maxDepth>
    <maxWeakCount>100</maxWeakCount></stageParams>
  <featureParams>
    <maxCatCount>256</maxCatCount>
    <featSize>1</featSize></featureParams>
  <stageNum>7</stageNum>
  <stages>
    <!-- stage 0 -->
    <_>
      <maxWeakCount>2</maxWeakCount>
      <stageThreshold>-8.5310779511928558e-02</stageThreshold>
      <weakClassifiers>
        <_>
          <internalNodes>
            0 -1 16 -137364513 -267155966 -2147319808 -251166653
            -536657920 -1073528831 -771522560 -67109913</internalNodes>
          <leafValues>
            -9.7665888071060181e-01 9.4670611619949341e-01</leafValues></_>
        <_>
          <internalNodes>
            0 -1 0 -137363730 -7618261 -779993070 -676333449 -888145761
            -259932021 -129762901 -1025</internalNodes>
          <leafValues>
            -9.8697614669799805e-01 8.9134812355041504e-01</leafValues></_></weakClassifiers></_>
    <!-- stage 1 -->
    <_>
      <maxWeakCount>2</maxWeakCount>
      <stageThreshold>-7.9836986958980560e-02</stageThreshold>
      <weakClassifiers>
        <_>
          <internalNodes>
            0 -1 9 -134221841 -1 -269750353 -1048577 -2097153 -1048609
            -17 -1</internalNodes>
          <leafValues>
            -9.4827586412429810e-01 9.0704649686813354e-01</leafValues></_>
        <_>
          <internalNodes>
            0 -1 17 -1 -2361377 -774138381 -42993697 -35651721 -5256557
            -67112073 -1025</internalNodes>
          <leafValues>
            -9.3376851081848145e-01 8.6843889951705933e-01</leafValues></_></weakClassifiers></_>
    <!-- stage 2 -->
    <_>
      <maxWeakCount>2</maxWeakCount>
      <stageThreshold>-1.8790380656719208e-01</stageThreshold>
      <weakClassifiers>
        <_>
          <internalNodes>
            0 -1 1 -1 -902832969 -997602089 -1060121633 -3151937
            -8220525 -41156625 -67109905</internalNodes>
          <leafValues>
            -9.2864286899566650e-01 8.4011840820312500e-01</leafValues></_>
        <_>
          <internalNodes>
            0 -1 3 -691077378 -592129 -1110511617 -4194305 -69207041
            -3481858 -74523905 -1</internalNodes>
          <leafValues>
            -9.4852858781814575e-01 7.4073904752731323e-01</leafValues></_></weakClassifiers></_>
    <!-- stage 3 -->
    <_>
      <maxWeakCount>3</maxWeakCount>
      <stageThreshold>-9.8589402437210083e-01</stageThreshold>
      <weakClassifiers>
        <_>
          <internalNodes>
            0 -1 12 -537338883 -2251179 -645613601 -6466598 -104141826
            -69434885 -83559681 -4695848</internalNodes>
          <leafValues>
            -8.9180326461791992e-01 8.2307690382003784e-01</leafValues></_>
        <_>
          <internalNodes>
            0 -1 7 -4718593 -50313328 -216801793 -4631673 -605316101
            -619887 -1677988865 -263781</internalNodes>
          <leafValues>
            -8.8067632913589478e-01 7.7152287960052490e-01</leafValues></_>
        <_>
          <internalNodes>
            0 -1 14 -2107401 -775625216 401855967 -136850069 -70266881
            -255023224 -338957313 -135275606</internalNodes>
          <leafValues>
            -8.2569950819015503e-01 7.8658562898635864e-01</leafValues></_></weakClassifiers></_>
    <!-- stage 4 -->
    <_>
      <maxWeakCount>3</maxWeakCount>
      <stageThreshold>-9.6956014633178711e-01</stageThreshold>
      <weakClassifiers>
        <_>
          <internalNodes>
            0 -1 10 -573244931 -8456871 -577251329 -6843947 -1098275845
            -7818021 -1615922177 -4678244</internalNodes>
          <leafValues>
            -8.7047493457794189e-01 7.2516804933547974e-01</leafValues></_>
        <_>
          <internalNodes>
            0 -1 5 -136314881 -178260993 -74973729 -33557537 -715796019
            -784215657 -142360657 -2097153</internalNodes>
          <leafValues>
            -8.2606095075607300e-01 8.1195324659347534e-01</leafValues></_>
        <_>
          <internalNodes>
            0 -1 13 -220467062 -201338769 -250877749 -2108737 -67109925
            -85217073 -22021893 -1041</internalNodes>
          <leafValues>
            -8.6038094758987427e-01 7.2697573900222778e-01</leafValues></_></weakClassifiers></_>
    <!-- stage 5 -->
    <_>
      <maxWeakCount>3</maxWeakCount>
      <stageThreshold>-1.0181730985641479e+00</stageThreshold>
      <weakClassifiers>
        <_>
          <internalNodes>
            0 -1 11 -1 -2098177 -7866609 -8653845 -33554433 -6983
            -105907761 -1</internalNodes>
          <leafValues>
            -8.4195119142532349e-01 7.3647058010101318e-01</leafValues></_>
        <_>
          <internalNodes>
            0 -1 4 -1048577 -2098721 -610285601 -560645 1145365644
            -138150193 -134217729 -50</internalNodes>
          <leafValues>
            -8.4043979644775391e-01 7.0387268066406250e-01</leafValues></_>
        <_>
          <internalNodes>
            0 -1 15 -2131800850 -2622053 -48768545 1610604511 -341835777
            -10081 -5243905 -1</internalNodes>
          <leafValues>
            -8.8009458780288696e-01 6.7165070772171021e-01</leafValues></_></weakClassifiers></_>
    <!-- stage 6 -->
    <_>
      <maxWeakCount>3</maxWeakCount>
      <stageThreshold>-1.0114045143127441e+00</stageThreshold>
      <weakClassifiers>
        <_>
          <internalNodes>
            0 -1 2 -134217729 -195100706 -749470721 -220266562
            -123735653 -57695349 -353372421 -33</internalNodes>
          <leafValues>
            -8.9273113012313843e-01 5.8047491312026978e-01</leafValues></_>
        <_>
          <internalNodes>
            0 -1 6 -1078222913 -36334627 -678165057 -1074031619
            -1181933889 -1145726786 -1667749473 -1079010370</internalNodes>
          <leafValues>
            -8.3971381187438965e-01 6.8190234899520874e-01</leafValues></_>
        <_>
          <internalNodes>
            0 -1 8 1393033215 1460137911 -648028161 -146279681
            -674238533 -733786377 -70254625 -12058897</internalNodes>
          <leafValues>
            -7.5216567516326904e-01 7.6138228178024292e-01</leafValues></_></weakClassifiers></_></stages>
  <features>
    <_>
      <rect>
        0 0 3 8</rect></_>
    <_>
      <rect>
        0 5 1 4</rect></_>
    <_>
      <rect>
        0 9 1 7</rect></_>
    <_>
      <rect>
        0 12 8 2</rect></_>
    <_>
      <rect>
        3 10 3 4</rect></_>
    <_>
      <rect>
        4 4 2 6</rect></_>
    <_>
      <rect>
        4 10 7 2</rect></_>
    <_>
      <rect>
        5 11 4 3</rect></_>
    <_>
      <rect>
        9 0 2 9</rect></_>
    <_>
      <rect>
        9 6 4 3</rect></_>
    <_>
      <rect>
        9 27 5 1</rect></_>
    <_>
      <rect>
        11 5 3 3</rect></_>
    <_>
      <rect>
        14 27 4 1</rect></_>
    <_>
      <rect>
        18 1 2 8</rect></_>
    <_>
      <rect>
        19 10 3 4</rect></_>
    <_>
      <rect>
        22 0 2 3</rect></_>
    <_>
      <rect>
        27 5 1 8</rect></_>
    <_>
      <rect>
        27 10 1 2</rect></_></features></cascade>
</opencv_storage>
